<?xml version="1.0"?>
<opencv_storage>
<cascade>
  <stageType>BOOST</stageType>
  <featureType>HAAR</featureType>
  <height>24</height>
  <width>36</width>
  <stageParams>
    <boostType>GAB</boostType>
    <minHitRate>9.9500000476837158e-01</minHitRate>
    <maxFalseAlarm>5.0000000000000000e-01</maxFalseAlarm>
    <weightTrimRate>9.4999999999999996e-01</weightTrimRate>
    <maxDepth>1</maxDepth>
    <maxWeakCount>100</maxWeakCount></stageParams>
  <featureParams>
    <maxCatCount>0</maxCatCount>
    <featSize>1</featSize>
    <mode>BASIC</mode></featureParams>
  <stageNum>15</stageNum>
  <stages>
    <!-- stage 0 -->
    <_>
      <maxWeakCount>3</maxWeakCount>
      <stageThreshold>-5.7105809450149536e-01</stageThreshold>
      <weakClassifiers>
        <_>
          <internalNodes>
            0 -1 17 -1.9961919635534286e-02</internalNodes>
          <leafValues>
            9.0588235855102539e-01 -7.1428573131561279e-01</leafValues></_>
        <_>
          <internalNodes>
            0 -1 23 -6.4787445589900017e-03</internalNodes>
          <leafValues>
            7.9705876111984253e-01 -6.1774897575378418e-01</leafValues></_>
        <_>
          <internalNodes>
            0 -1 8 -4.4656254351139069e-02</internalNodes>
          <leafValues>
            8.1641930341720581e-01 -6.5383118391036987e-01</leafValues></_></weakClassifiers></_>
    <!-- stage 1 -->
    <_>
      <maxWeakCount>4</maxWeakCount>
      <stageThreshold>-6.3561034202575684e-01</stageThreshold>
      <weakClassifiers>
        <_>
          <internalNodes>
            0 -1 9 -7.8372783958911896e-02</internalNodes>
          <leafValues>
            7.8571426868438721e-01 -6.0377359390258789e-01</leafValues></_>
        <_>
          <internalNodes>
            0 -1 28 2.7211429551243782e-03</internalNodes>
          <leafValues>
            4.3737661838531494e-01 -7.5891518592834473e-01</leafValues></_>
        <_>
          <internalNodes>
            0 -1 61 8.8075199164450169e-04</internalNodes>
          <leafValues>
            3.8538077473640442e-01 -8.2355391979217529e-01</leafValues></_>
        <_>
          <internalNodes>
            0 -1 13 2.6082838885486126e-03</internalNodes>
          <leafValues>
            3.5434049367904663e-01 -9.0916925668716431e-01</leafValues></_></weakClassifiers></_>
    <!-- stage 2 -->
    <_>
      <maxWeakCount>4</maxWeakCount>
      <stageThreshold>-5.0799012184143066e-01</stageThreshold>
      <weakClassifiers>
        <_>
          <internalNodes>
            0 -1 20 2.7709946036338806e-02</internalNodes>
          <leafValues>
            -4.4715446233749390e-01 8.5074627399444580e-01</leafValues></_>
        <_>
          <internalNodes>
            0 -1 41 -1.3653591275215149e-02</internalNodes>
          <leafValues>
            8.8897597789764404e-01 -2.9285052418708801e-01</leafValues></_>
        <_>
          <internalNodes>
            0 -1 16 -5.6431770324707031e-02</internalNodes>
          <leafValues>
            6.3151293992996216e-01 -5.2156817913055420e-01</leafValues></_>
        <_>
          <internalNodes>
            0 -1 36 -1.1333517730236053e-02</internalNodes>
          <leafValues>
            7.6999706029891968e-01 -3.9949807524681091e-01</leafValues></_></weakClassifiers></_>
    <!-- stage 3 -->
    <_>
      <maxWeakCount>4</maxWeakCount>
      <stageThreshold>-1.0005686283111572e+00</stageThreshold>
      <weakClassifiers>
        <_>
          <internalNodes>
            0 -1 11 -1.0849519073963165e-01</internalNodes>
          <leafValues>
            9.2727273702621460e-01 -3.6296296119689941e-01</leafValues></_>
        <_>
          <internalNodes>
            0 -1 47 -2.5460252072662115e-04</internalNodes>
          <leafValues>
            -8.0589288473129272e-01 4.4858241081237793e-01</leafValues></_>
        <_>
          <internalNodes>
            0 -1 19 6.3139442354440689e-03</internalNodes>
          <leafValues>
            -4.1986465454101563e-01 8.0467087030410767e-01</leafValues></_>
        <_>
          <internalNodes>
            0 -1 45 2.0785988308489323e-03</internalNodes>
          <leafValues>
            -6.6632348299026489e-01 5.2853679656982422e-01</leafValues></_></weakClassifiers></_>
    <!-- stage 4 -->
    <_>
      <maxWeakCount>4</maxWeakCount>
      <stageThreshold>-2.2309449315071106e-01</stageThreshold>
      <weakClassifiers>
        <_>
          <internalNodes>
            0 -1 7 -9.1088265180587769e-02</internalNodes>
          <leafValues>
            5.5813956260681152e-01 -4.4230768084526062e-01</leafValues></_>
        <_>
          <internalNodes>
            0 -1 22 -1.4284881763160229e-04</internalNodes>
          <leafValues>
            -7.3029130697250366e-01 3.6252528429031372e-01</leafValues></_>
        <_>
          <internalNodes>
            0 -1 1 1.4285201206803322e-02</internalNodes>
          <leafValues>
            -4.4232696294784546e-01 6.4984703063964844e-01</leafValues></_>
        <_>
          <internalNodes>
            0 -1 52 -2.3754767607897520e-04</internalNodes>
          <leafValues>
            -9.5503795146942139e-01 3.9138424396514893e-01</leafValues></_></weakClassifiers></_>
    <!-- stage 5 -->
    <_>
      <maxWeakCount>5</maxWeakCount>
      <stageThreshold>-9.5735055208206177e-01</stageThreshold>
      <weakClassifiers>
        <_>
          <internalNodes>
            0 -1 50 -3.0024282750673592e-04</internalNodes>
          <leafValues>
            -8.5714286565780640e-01 3.7313431501388550e-01</leafValues></_>
        <_>
          <internalNodes>
            0 -1 67 2.2626038640737534e-02</internalNodes>
          <leafValues>
            -4.7159108519554138e-01 6.6308563947677612e-01</leafValues></_>
        <_>
          <internalNodes>
            0 -1 33 -1.8887913029175252e-04</internalNodes>
          <leafValues>
            -8.7868124246597290e-01 3.5346820950508118e-01</leafValues></_>
        <_>
          <internalNodes>
            0 -1 32 7.8600773122161627e-05</internalNodes>
          <leafValues>
            4.0401503443717957e-01 -7.2418552637100220e-01</leafValues></_>
        <_>
          <internalNodes>
            0 -1 39 2.3329891264438629e-02</internalNodes>
          <leafValues>
            -3.8609987497329712e-01 9.0375477075576782e-01</leafValues></_></weakClassifiers></_>
    <!-- stage 6 -->
    <_>
      <maxWeakCount>4</maxWeakCount>
      <stageThreshold>-1.6798356175422668e-01</stageThreshold>
      <weakClassifiers>
        <_>
          <internalNodes>
            0 -1 4 -1.5449206344783306e-02</internalNodes>
          <leafValues>
            4.5794391632080078e-01 -5.6626504659652710e-01</leafValues></_>
        <_>
          <internalNodes>
            0 -1 65 3.6898010876029730e-03</internalNodes>
          <leafValues>
            -3.0293315649032593e-01 7.5483858585357666e-01</leafValues></_>
        <_>
          <internalNodes>
            0 -1 5 -4.6503581106662750e-03</internalNodes>
          <leafValues>
            4.6765822172164917e-01 -4.9642565846443176e-01</leafValues></_>
        <_>
          <internalNodes>
            0 -1 29 2.9200164135545492e-04</internalNodes>
          <leafValues>
            2.7770748734474182e-01 -7.9065257310867310e-01</leafValues></_></weakClassifiers></_>
    <!-- stage 7 -->
    <_>
      <maxWeakCount>5</maxWeakCount>
      <stageThreshold>-3.4606382250785828e-01</stageThreshold>
      <weakClassifiers>
        <_>
          <internalNodes>
            0 -1 44 -1.5764066483825445e-03</internalNodes>
          <leafValues>
            8.5454547405242920e-01 -3.3333334326744080e-01</leafValues></_>
        <_>
          <internalNodes>
            0 -1 2 9.4068925827741623e-03</internalNodes>
          <leafValues>
            -2.6407209038734436e-01 9.0421897172927856e-01</leafValues></_>
        <_>
          <internalNodes>
            0 -1 37 8.3123734220862389e-03</internalNodes>
          <leafValues>
            -2.9331251978874207e-01 9.1061139106750488e-01</leafValues></_>
        <_>
          <internalNodes>
            0 -1 42 1.2510269880294800e-02</internalNodes>
          <leafValues>
            -2.6030290126800537e-01 8.8488399982452393e-01</leafValues></_>
        <_>
          <internalNodes>
            0 -1 43 2.0170174539089203e-03</internalNodes>
          <leafValues>
            -3.4022986888885498e-01 8.3921021223068237e-01</leafValues></_></weakClassifiers></_>
    <!-- stage 8 -->
    <_>
      <maxWeakCount>5</maxWeakCount>
      <stageThreshold>6.0304369777441025e-02</stageThreshold>
      <weakClassifiers>
        <_>
          <internalNodes>
            0 -1 52 1.5128686209209263e-04</internalNodes>
          <leafValues>
            4.4067797064781189e-01 -6.9444441795349121e-01</leafValues></_>
        <_>
          <internalNodes>
            0 -1 27 -5.9091895818710327e-02</internalNodes>
          <leafValues>
            8.0565613508224487e-01 -3.2482707500457764e-01</leafValues></_>
        <_>
          <internalNodes>
            0 -1 63 -3.2862508669495583e-04</internalNodes>
          <leafValues>
            -8.9125698804855347e-01 3.4287345409393311e-01</leafValues></_>
        <_>
          <internalNodes>
            0 -1 38 2.4117018620017916e-04</internalNodes>
          <leafValues>
            2.5284478068351746e-01 -9.3571043014526367e-01</leafValues></_>
        <_>
          <internalNodes>
            0 -1 62 -5.5394610390067101e-03</internalNodes>
          <leafValues>
            5.8750486373901367e-01 -5.0764465332031250e-01</leafValues></_></weakClassifiers></_>
    <!-- stage 9 -->
    <_>
      <maxWeakCount>5</maxWeakCount>
      <stageThreshold>-4.8251926898956299e-01</stageThreshold>
      <weakClassifiers>
        <_>
          <internalNodes>
            0 -1 60 1.7428949649911374e-04</internalNodes>
          <leafValues>
            -6.8965518474578857e-01 3.1818181276321411e-01</leafValues></_>
        <_>
          <internalNodes>
            0 -1 34 5.9652570635080338e-03</internalNodes>
          <leafValues>
            -2.6723885536193848e-01 8.9028239250183105e-01</leafValues></_>
        <_>
          <internalNodes>
            0 -1 0 -2.2349715232849121e-01</internalNodes>
          <leafValues>
            -9.3104612827301025e-01 2.8184491395950317e-01</leafValues></_>
        <_>
          <internalNodes>
            0 -1 14 -7.5014065951108932e-03</internalNodes>
          <leafValues>
            4.9263024330139160e-01 -4.9602392315864563e-01</leafValues></_>
        <_>
          <internalNodes>
            0 -1 15 -3.4803543239831924e-03</internalNodes>
          <leafValues>
            7.5592958927154541e-01 -3.0010041594505310e-01</leafValues></_></weakClassifiers></_>
    <!-- stage 10 -->
    <_>
      <maxWeakCount>5</maxWeakCount>
      <stageThreshold>-2.7960941195487976e-01</stageThreshold>
      <weakClassifiers>
        <_>
          <internalNodes>
            0 -1 35 1.1685566278174520e-04</internalNodes>
          <leafValues>
            2.8571429848670959e-01 -7.5999999046325684e-01</leafValues></_>
        <_>
          <internalNodes>
            0 -1 48 -4.2273625731468201e-03</internalNodes>
          <leafValues>
            7.6010906696319580e-01 -3.3852809667587280e-01</leafValues></_>
        <_>
          <internalNodes>
            0 -1 31 -3.3154148608446121e-02</internalNodes>
          <leafValues>
            9.4294697046279907e-01 -2.5035294890403748e-01</leafValues></_>
        <_>
          <internalNodes>
            0 -1 55 -1.1038600932806730e-03</internalNodes>
          <leafValues>
            6.5866237878799438e-01 -3.0859631299972534e-01</leafValues></_>
        <_>
          <internalNodes>
            0 -1 51 -8.7927379354368895e-05</internalNodes>
          <leafValues>
            -6.3510507345199585e-01 3.6924308538436890e-01</leafValues></_></weakClassifiers></_>
    <!-- stage 11 -->
    <_>
      <maxWeakCount>5</maxWeakCount>
      <stageThreshold>-6.6314357519149780e-01</stageThreshold>
      <weakClassifiers>
        <_>
          <internalNodes>
            0 -1 6 8.6839616298675537e-02</internalNodes>
          <leafValues>
            3.7190082669258118e-01 -6.2318837642669678e-01</leafValues></_>
        <_>
          <internalNodes>
            0 -1 66 -7.3779448866844177e-03</internalNodes>
          <leafValues>
            6.1539238691329956e-01 -3.6014622449874878e-01</leafValues></_>
        <_>
          <internalNodes>
            0 -1 21 -3.4283600747585297e-02</internalNodes>
          <leafValues>
            7.3030358552932739e-01 -2.9939943552017212e-01</leafValues></_>
        <_>
          <internalNodes>
            0 -1 56 1.5943813195917755e-04</internalNodes>
          <leafValues>
            3.5709208250045776e-01 -7.5597047805786133e-01</leafValues></_>
        <_>
          <internalNodes>
            0 -1 58 -2.9087645816616714e-04</internalNodes>
          <leafValues>
            -6.7033267021179199e-01 3.8047176599502563e-01</leafValues></_></weakClassifiers></_>
    <!-- stage 12 -->
    <_>
      <maxWeakCount>6</maxWeakCount>
      <stageThreshold>-3.4923863410949707e-01</stageThreshold>
      <weakClassifiers>
        <_>
          <internalNodes>
            0 -1 3 6.7968871444463730e-03</internalNodes>
          <leafValues>
            -1.8471337854862213e-01 9.3939393758773804e-01</leafValues></_>
        <_>
          <internalNodes>
            0 -1 30 1.7254692502319813e-03</internalNodes>
          <leafValues>
            3.0513423681259155e-01 -7.4238055944442749e-01</leafValues></_>
        <_>
          <internalNodes>
            0 -1 10 -2.4540621787309647e-02</internalNodes>
          <leafValues>
            6.3761436939239502e-01 -3.1087952852249146e-01</leafValues></_>
        <_>
          <internalNodes>
            0 -1 25 -2.1553181111812592e-02</internalNodes>
          <leafValues>
            8.1092208623886108e-01 -2.2630730271339417e-01</leafValues></_>
        <_>
          <internalNodes>
            0 -1 68 1.5533573459833860e-03</internalNodes>
          <leafValues>
            -4.1579234600067139e-01 5.1468563079833984e-01</leafValues></_>
        <_>
          <internalNodes>
            0 -1 59 -2.6248162612318993e-03</internalNodes>
          <leafValues>
            6.1928033828735352e-01 -3.4813737869262695e-01</leafValues></_></weakClassifiers></_>
    <!-- stage 13 -->
    <_>
      <maxWeakCount>6</maxWeakCount>
      <stageThreshold>-5.0005793571472168e-02</stageThreshold>
      <weakClassifiers>
        <_>
          <internalNodes>
            0 -1 26 -7.2125233709812164e-03</internalNodes>
          <leafValues>
            7.2549021244049072e-01 -2.5179857015609741e-01</leafValues></_>
        <_>
          <internalNodes>
            0 -1 64 2.8312014183029532e-04</internalNodes>
          <leafValues>
            3.0610921978950500e-01 -6.8719929456710815e-01</leafValues></_>
        <_>
          <internalNodes>
            0 -1 57 -3.2840634230524302e-04</internalNodes>
          <leafValues>
            -6.8897688388824463e-01 2.8803244233131409e-01</leafValues></_>
        <_>
          <internalNodes>
            0 -1 12 6.7917606793344021e-03</internalNodes>
          <leafValues>
            -2.4878232181072235e-01 8.6151564121246338e-01</leafValues></_>
        <_>
          <internalNodes>
            0 -1 49 -1.3425840006675571e-04</internalNodes>
          <leafValues>
            -8.1795012950897217e-01 2.7994364500045776e-01</leafValues></_>
        <_>
          <internalNodes>
            0 -1 54 4.1294740512967110e-03</internalNodes>
          <leafValues>
            -3.0290520191192627e-01 8.7996977567672729e-01</leafValues></_></weakClassifiers></_>
    <!-- stage 14 -->
    <_>
      <maxWeakCount>7</maxWeakCount>
      <stageThreshold>-8.1926035881042480e-01</stageThreshold>
      <weakClassifiers>
        <_>
          <internalNodes>
            0 -1 70 2.3162466823123395e-04</internalNodes>
          <leafValues>
            3.8461539149284363e-01 -4.4186046719551086e-01</leafValues></_>
        <_>
          <internalNodes>
            0 -1 69 1.1947157792747021e-02</internalNodes>
          <leafValues>
            -4.0630504488945007e-01 5.0594633817672729e-01</leafValues></_>
        <_>
          <internalNodes>
            0 -1 18 -8.9484080672264099e-04</internalNodes>
          <leafValues>
            5.1970767974853516e-01 -3.9341247081756592e-01</leafValues></_>
        <_>
          <internalNodes>
            0 -1 24 -5.1972223445773125e-03</internalNodes>
          <leafValues>
            7.4781709909439087e-01 -3.0091214179992676e-01</leafValues></_>
        <_>
          <internalNodes>
            0 -1 40 4.6808374463580549e-05</internalNodes>
          <leafValues>
            3.9210912585258484e-01 -5.8150768280029297e-01</leafValues></_>
        <_>
          <internalNodes>
            0 -1 53 6.5797530114650726e-03</internalNodes>
          <leafValues>
            -3.3323538303375244e-01 8.0025660991668701e-01</leafValues></_>
        <_>
          <internalNodes>
            0 -1 46 5.7843317335937172e-05</internalNodes>
          <leafValues>
            -3.2199501991271973e-01 6.2427598237991333e-01</leafValues></_></weakClassifiers></_></stages>
  <features>
    <_>
      <rects>
        <_>
          0 1 36 16 -1.</_>
        <_>
          18 1 18 16 2.</_></rects>
      <tilted>0</tilted></_>
    <_>
      <rects>
        <_>
          0 8 25 6 -1.</_>
        <_>
          0 10 25 2 3.</_></rects>
      <tilted>0</tilted></_>
    <_>
      <rects>
        <_>
          0 9 33 3 -1.</_>
        <_>
          0 10 33 1 3.</_></rects>
      <tilted>0</tilted></_>
    <_>
      <rects>
        <_>
          0 13 6 4 -1.</_>
        <_>
          2 13 2 4 3.</_></rects>
      <tilted>0</tilted></_>
    <_>
      <rects>
        <_>
          0 15 18 7 -1.</_>
        <_>
          9 15 9 7 2.</_></rects>
      <tilted>0</tilted></_>
    <_>
      <rects>
        <_>
          1 13 12 10 -1.</_>
        <_>
          5 13 4 10 3.</_></rects>
      <tilted>0</tilted></_>
    <_>
      <rects>
        <_>
          2 4 28 20 -1.</_>
        <_>
          16 4 14 20 2.</_></rects>
      <tilted>0</tilted></_>
    <_>
      <rects>
        <_>
          2 9 21 15 -1.</_>
        <_>
          2 14 21 5 3.</_></rects>
      <tilted>0</tilted></_>
    <_>
      <rects>
        <_>
          2 10 30 8 -1.</_>
        <_>
          2 14 30 4 2.</_></rects>
      <tilted>0</tilted></_>
    <_>
      <rects>
        <_>
          3 9 33 15 -1.</_>
        <_>
          3 14 33 5 3.</_></rects>
      <tilted>0</tilted></_>
    <_>
      <rects>
        <_>
          3 10 30 6 -1.</_>
        <_>
          3 12 30 2 3.</_></rects>
      <tilted>0</tilted></_>
    <_>
      <rects>
        <_>
          3 12 29 12 -1.</_>
        <_>
          3 16 29 4 3.</_></rects>
      <tilted>0</tilted></_>
    <_>
      <rects>
        <_>
          3 14 23 3 -1.</_>
        <_>
          3 15 23 1 3.</_></rects>
      <tilted>0</tilted></_>
    <_>
      <rects>
        <_>
          3 21 6 3 -1.</_>
        <_>
          6 21 3 3 2.</_></rects>
      <tilted>0</tilted></_>
    <_>
      <rects>
        <_>
          4 10 6 6 -1.</_>
        <_>
          4 13 6 3 2.</_></rects>
      <tilted>0</tilted></_>
    <_>
      <rects>
        <_>
          5 6 22 2 -1.</_>
        <_>
          5 6 11 1 2.</_>
        <_>
          16 7 11 1 2.</_></rects>
      <tilted>0</tilted></_>
    <_>
      <rects>
        <_>
          5 8 24 8 -1.</_>
        <_>
          5 12 24 4 2.</_></rects>
      <tilted>0</tilted></_>
    <_>
      <rects>
        <_>
          5 9 28 6 -1.</_>
        <_>
          5 12 28 3 2.</_></rects>
      <tilted>0</tilted></_>
    <_>
      <rects>
        <_>
          5 12 4 3 -1.</_>
        <_>
          5 13 4 1 3.</_></rects>
      <tilted>0</tilted></_>
    <_>
      <rects>
        <_>
          5 14 2 10 -1.</_>
        <_>
          5 19 2 5 2.</_></rects>
      <tilted>0</tilted></_>
    <_>
      <rects>
        <_>
          5 18 28 6 -1.</_>
        <_>
          5 21 28 3 2.</_></rects>
      <tilted>0</tilted></_>
    <_>
      <rects>
        <_>
          6 0 18 12 -1.</_>
        <_>
          6 4 18 4 3.</_></rects>
      <tilted>0</tilted></_>
    <_>
      <rects>
        <_>
          6 22 3 1 -1.</_>
        <_>
          7 22 1 1 3.</_></rects>
      <tilted>0</tilted></_>
    <_>
      <rects>
        <_>
          7 1 2 20 -1.</_>
        <_>
          7 11 2 10 2.</_></rects>
      <tilted>0</tilted></_>
    <_>
      <rects>
        <_>
          7 5 20 3 -1.</_>
        <_>
          7 6 20 1 3.</_></rects>
      <tilted>0</tilted></_>
    <_>
      <rects>
        <_>
          7 7 22 6 -1.</_>
        <_>
          7 9 22 2 3.</_></rects>
      <tilted>0</tilted></_>
    <_>
      <rects>
        <_>
          7 11 25 3 -1.</_>
        <_>
          7 12 25 1 3.</_></rects>
      <tilted>0</tilted></_>
    <_>
      <rects>
        <_>
          7 15 21 9 -1.</_>
        <_>
          7 18 21 3 3.</_></rects>
      <tilted>0</tilted></_>
    <_>
      <rects>
        <_>
          7 22 10 2 -1.</_>
        <_>
          12 22 5 2 2.</_></rects>
      <tilted>0</tilted></_>
    <_>
      <rects>
        <_>
          8 0 3 2 -1.</_>
        <_>
          9 0 1 2 3.</_></rects>
      <tilted>0</tilted></_>
    <_>
      <rects>
        <_>
          8 20 6 3 -1.</_>
        <_>
          10 20 2 3 3.</_></rects>
      <tilted>0</tilted></_>
    <_>
      <rects>
        <_>
          9 18 27 6 -1.</_>
        <_>
          9 20 27 2 3.</_></rects>
      <tilted>0</tilted></_>
    <_>
      <rects>
        <_>
          9 20 2 1 -1.</_>
        <_>
          10 20 1 1 2.</_></rects>
      <tilted>0</tilted></_>
    <_>
      <rects>
        <_>
          9 22 3 2 -1.</_>
        <_>
          10 22 1 2 3.</_></rects>
      <tilted>0</tilted></_>
    <_>
      <rects>
        <_>
          10 17 13 3 -1.</_>
        <_>
          10 18 13 1 3.</_></rects>
      <tilted>0</tilted></_>
    <_>
      <rects>
        <_>
          10 23 3 1 -1.</_>
        <_>
          11 23 1 1 3.</_></rects>
      <tilted>0</tilted></_>
    <_>
      <rects>
        <_>
          11 2 8 6 -1.</_>
        <_>
          11 5 8 3 2.</_></rects>
      <tilted>0</tilted></_>
    <_>
      <rects>
        <_>
          11 6 16 3 -1.</_>
        <_>
          11 7 16 1 3.</_></rects>
      <tilted>0</tilted></_>
    <_>
      <rects>
        <_>
          11 22 2 1 -1.</_>
        <_>
          12 22 1 1 2.</_></rects>
      <tilted>0</tilted></_>
    <_>
      <rects>
        <_>
          12 3 24 6 -1.</_>
        <_>
          20 3 8 6 3.</_></rects>
      <tilted>0</tilted></_>
    <_>
      <rects>
        <_>
          12 21 2 1 -1.</_>
        <_>
          13 21 1 1 2.</_></rects>
      <tilted>0</tilted></_>
    <_>
      <rects>
        <_>
          13 6 13 6 -1.</_>
        <_>
          13 8 13 2 3.</_></rects>
      <tilted>0</tilted></_>
    <_>
      <rects>
        <_>
          15 0 6 9 -1.</_>
        <_>
          15 3 6 3 3.</_></rects>
      <tilted>0</tilted></_>
    <_>
      <rects>
        <_>
          15 17 11 3 -1.</_>
        <_>
          15 18 11 1 3.</_></rects>
      <tilted>0</tilted></_>
    <_>
      <rects>
        <_>
          16 6 8 3 -1.</_>
        <_>
          16 7 8 1 3.</_></rects>
      <tilted>0</tilted></_>
    <_>
      <rects>
        <_>
          16 8 20 16 -1.</_>
        <_>
          26 8 10 16 2.</_></rects>
      <tilted>0</tilted></_>
    <_>
      <rects>
        <_>
          16 13 2 2 -1.</_>
        <_>
          16 13 1 1 2.</_>
        <_>
          17 14 1 1 2.</_></rects>
      <tilted>0</tilted></_>
    <_>
      <rects>
        <_>
          16 22 2 2 -1.</_>
        <_>
          17 22 1 2 2.</_></rects>
      <tilted>0</tilted></_>
    <_>
      <rects>
        <_>
          17 14 18 3 -1.</_>
        <_>
          17 15 18 1 3.</_></rects>
      <tilted>0</tilted></_>
    <_>
      <rects>
        <_>
          17 23 3 1 -1.</_>
        <_>
          18 23 1 1 3.</_></rects>
      <tilted>0</tilted></_>
    <_>
      <rects>
        <_>
          18 22 3 2 -1.</_>
        <_>
          19 22 1 2 3.</_></rects>
      <tilted>0</tilted></_>
    <_>
      <rects>
        <_>
          19 0 2 2 -1.</_>
        <_>
          19 1 2 1 2.</_></rects>
      <tilted>0</tilted></_>
    <_>
      <rects>
        <_>
          19 22 2 2 -1.</_>
        <_>
          20 22 1 2 2.</_></rects>
      <tilted>0</tilted></_>
    <_>
      <rects>
        <_>
          20 7 1 9 -1.</_>
        <_>
          20 10 1 3 3.</_></rects>
      <tilted>0</tilted></_>
    <_>
      <rects>
        <_>
          20 13 6 3 -1.</_>
        <_>
          20 14 6 1 3.</_></rects>
      <tilted>0</tilted></_>
    <_>
      <rects>
        <_>
          20 15 7 3 -1.</_>
        <_>
          20 16 7 1 3.</_></rects>
      <tilted>0</tilted></_>
    <_>
      <rects>
        <_>
          20 23 6 1 -1.</_>
        <_>
          22 23 2 1 3.</_></rects>
      <tilted>0</tilted></_>
    <_>
      <rects>
        <_>
          21 0 2 6 -1.</_>
        <_>
          21 0 1 3 2.</_>
        <_>
          22 3 1 3 2.</_></rects>
      <tilted>0</tilted></_>
    <_>
      <rects>
        <_>
          21 2 6 3 -1.</_>
        <_>
          23 2 2 3 3.</_></rects>
      <tilted>0</tilted></_>
    <_>
      <rects>
        <_>
          22 3 1 6 -1.</_>
        <_>
          22 6 1 3 2.</_></rects>
      <tilted>0</tilted></_>
    <_>
      <rects>
        <_>
          22 16 14 8 -1.</_>
        <_>
          29 16 7 8 2.</_></rects>
      <tilted>0</tilted></_>
    <_>
      <rects>
        <_>
          23 3 4 2 -1.</_>
        <_>
          25 3 2 2 2.</_></rects>
      <tilted>0</tilted></_>
    <_>
      <rects>
        <_>
          23 14 8 6 -1.</_>
        <_>
          23 16 8 2 3.</_></rects>
      <tilted>0</tilted></_>
    <_>
      <rects>
        <_>
          24 22 2 2 -1.</_>
        <_>
          25 22 1 2 2.</_></rects>
      <tilted>0</tilted></_>
    <_>
      <rects>
        <_>
          24 23 6 1 -1.</_>
        <_>
          26 23 2 1 3.</_></rects>
      <tilted>0</tilted></_>
    <_>
      <rects>
        <_>
          25 7 9 3 -1.</_>
        <_>
          28 7 3 3 3.</_></rects>
      <tilted>0</tilted></_>
    <_>
      <rects>
        <_>
          26 8 9 12 -1.</_>
        <_>
          29 8 3 12 3.</_></rects>
      <tilted>0</tilted></_>
    <_>
      <rects>
        <_>
          26 12 10 10 -1.</_>
        <_>
          31 12 5 10 2.</_></rects>
      <tilted>0</tilted></_>
    <_>
      <rects>
        <_>
          26 18 2 6 -1.</_>
        <_>
          26 21 2 3 2.</_></rects>
      <tilted>0</tilted></_>
    <_>
      <rects>
        <_>
          28 13 8 7 -1.</_>
        <_>
          32 13 4 7 2.</_></rects>
      <tilted>0</tilted></_>
    <_>
      <rects>
        <_>
          34 13 2 5 -1.</_>
        <_>
          35 13 1 5 2.</_></rects>
      <tilted>0</tilted></_></features></cascade>
</opencv_storage>
